2.6815088 -0.5279803 -2.3916464 -1.1049111 0.5038777 5.320222 -2.5849519 1.8900574 1.4691606 -3.855197 3.2414103 4.8575845 -2.7784946 3.5252643 -1.1054163 -2.0996647 -3.5359695 3.971076 4.223695 -2.65494 4.602148 3.8627176 -0.11432854 -3.9669013 4.6193056 -2.4408562 -2.7799578 2.4766695 5.4549704 0.7282558 0.30878213 -3.062203 -3.072322 -0.18350278 -1.1119927 0.47421744 2.7249513 -2.2351162 -3.9433923 -2.8790627 4.3536177 -1.8782078 4.817941 0.5782514 -0.9544305 1.8965899 0.4076063 3.8470008 4.2069488 -3.3430445 3.7223191 4.597279 -0.3896495 2.8961098 2.6409674 -0.6006437 -4.2886486 0.8222761 3.7268066 -2.3962762 3.4311578 -0.40941855 -3.0065897 -1.3409636 -3.7987394 1.8185047 0.12227642 -2.4283168 -0.009517025 -1.4465106 -3.1851764 -0.36049384 0.68599474 3.8237822 -4.342778 -0.70680946 1.0778852 3.1269786 2.3756192 -2.5093253 1.6814958 -2.62486 -1.6311312 -0.8257987 0.60774815 2.5566351 2.7597473 4.8481493 -2.332314 4.9638705 
-1.1207459 5.0820394 -6.806795 8.727988 1.4122626 10.077814 -1.2155927 6.261209 -2.5245516 8.35098 -3.0885239 7.5804353 6.826656 -1.920063 2.820011 1.0415074 2.186463 -1.9580011 0.09192098 -9.040059 -2.8646758 -7.646894 -2.8711145 -4.374209 -0.7504468 -13.253015 -1.9148318 -14.206201 -9.026583 -6.6334147 -5.5066557 -9.32566 -5.8415523 -2.8164954 -3.2031798 -4.9829845 -5.0032773 -0.5591576 -1.5443689 -2.4035287 -0.5685328 -6.6322875 8.138971 3.8768697 0.4148349 3.3063905 8.3741455 3.3227794 8.639086 6.995447 5.4958515 4.5495334 7.2787423 0.43669185 1.2561632 3.6938117 -4.391123 7.708438 2.0211606 4.922228 -4.3535695 1.2777871 -7.491408 -1.7279128 0.21898402 -0.7293388 -8.79356 -2.4036522 -7.6938844 -6.259324 2.9460778 -2.4312596 2.960483 2.0831823 1.1116862 -0.8108502 -4.5904064 -1.5080218 -3.076375 -1.1245652 -0.29978043 4.3988357 8.700064 1.4506478 0.74002516 0.21202484 5.669489 1.3568891 5.424992 -8.172344 
0.35303178 12.9528675 -0.97066337 9.644504 -2.5299666 6.7946386 0.9758161 4.8021474 0.21729247 3.5025496 -2.7832787 -1.0804458 -0.95172274 2.974731 -1.6858789 2.0238955 0.91484237 -7.3586583 -4.8215537 2.0460265 3.441579 1.7677704 1.9901131 0.048226997 1.4399858 3.2212753 3.2921865 4.674192 0.4202727 3.0577724 2.8656962 5.9517746 0.5289004 -3.70824 3.3898125 -0.097033486 7.3898625 -0.92456347 4.4347286 -4.8477955 2.6798456 -5.3432336 7.102371 -2.9141252 0.26061335 -4.3719935 2.0544474 -0.11381114 2.7987301 4.5725417 3.5401678 -1.3014877 -1.1483711 -1.0811006 1.5944966 -2.6799812 3.763516 0.19971578 4.844217 -10.314795 0.15803348 -2.9736474 1.0815184 -7.766134 -0.078003764 -5.026502 0.8432567 -8.563911 5.8547034 -2.9324353 -2.2300074 4.1698217 -2.236172 3.4244413 -0.085636996 0.05534654 -8.184756 -0.21896544 -8.953381 -0.8286518 -5.543305 1.1195377 -8.032211 -2.9607456 -0.15833692 -3.1302164 -4.820215 2.4494023 1.0285132 2.7934053 
-4.870416 -3.8788216 0.1688137 -3.6599746 2.252656 -4.220727 4.76256 4.7593 2.824665 -0.70811224 -4.250951 -0.528471 -1.8822324 -3.4212906 -4.5093727 1.1336732 -4.6812 -0.46300888 -1.1139274 4.038254 4.8907986 4.8695545 -0.62516594 1.7805772 3.1164541 -3.237229 -4.8687134 -0.6717725 -3.3512444 -1.2773123 1.7127414 4.3410034 -0.4633503 1.3481655 -3.1512322 -4.908514 0.8986492 -3.1468987 1.5457201 -1.5991757 3.1848545 1.7455215 -0.7708173 -1.368669 -3.2020183 -3.770496 1.2583818 -2.0331225 -3.263474 2.616634 2.8204322 -1.035918 0.87829494 -4.6831384 -2.0513659 2.6717014 -2.4598885 1.8243637 -3.792173 -0.50738716 2.0295734 -2.4778156 -3.5488157 -4.59779 -1.9526849 -2.89983 4.976614 3.139001 0.0033300126 1.9138746 -3.6027074 -3.4523606 -3.4215498 -4.292145 -4.410334 -3.6184096 4.1921825 0.78494596 -1.8064048 -2.4379406 1.4306879 2.9238338 -4.6868606 1.1417909 1.9437242 -3.8695736 -4.697193 -0.96321774 3.8370123 -2.3457522 
1.8230193 -4.0341854 -1.8333846 -0.39065638 2.7093263 0.9780048 -2.2161143 -3.9907706 -1.3752036 0.44745797 0.48610717 3.0610244 3.9511049 -4.5155187 -2.805865 -3.845374 4.920291 -0.6654948 -3.2918408 -0.85237813 1.6047502 4.5228415 3.4866962 0.2615761 1.0535848 -4.730544 3.8487124 4.1908507 -1.3994558 -2.0087967 -0.9851598 1.8739674 3.1682749 1.6038955 0.4858002 -2.224238 0.25463015 -0.22964233 4.3967094 -0.4852932 3.2098594 -0.76585525 -3.306438 -3.812167 -0.59967214 1.9590328 0.24202995 -0.1500464 2.9058511 3.9065764 -1.6856319 -0.739083 -0.4987533 -0.017125273 -3.7147489 -3.7666821 2.8580165 2.9326744 4.8298774 2.6979365 3.1277013 3.7769916 3.4314835 0.94913954 0.37447238 2.7627182 2.5839677 0.44060653 -4.318946 2.7376184 -3.2767456 1.9743763 2.181037 1.3621237 -2.3804913 4.1551046 -3.2513113 4.6344614 -0.2640693 -2.4180388 0.63933355 1.8352561 4.88511 -0.5932882 3.9687288 1.182529 3.410175 4.6042233 4.6077437 -3.7556472 
2.698775 0.46364972 -3.5770774 -4.6593738 4.456842 -1.4532651 -1.7949984 0.9378636 -3.545755 -0.9285274 -0.32873088 -1.2005471 3.6019652 -2.8449244 -4.089553 -1.8886193 0.37442937 2.332881 -0.65320265 -2.1170433 -1.4084597 -1.2991467 -3.2177644 -2.058584 0.90730965 1.6825547 -5.084144 3.1817057 1.9257004 3.7671325 -3.4409463 3.5973768 -3.470285 4.1248536 -3.0157993 -3.1090298 4.675059 -3.059073 -3.7534103 -2.5098372 -2.8455646 -1.2879999 -1.3789126 3.638216 -5.116503 -2.2046344 4.489371 3.0163696 -2.743601 -2.7274342 3.8175979 -1.1013676 1.9557029 -0.7990887 2.8148363 1.7852786 -0.76059943 -0.22129326 -3.1285949 -4.8666797 -1.2637291 3.8827667 3.7611725 0.0251392 -4.0462246 2.7597442 0.6807577 0.4173872 -1.9935402 -0.03400777 -2.727714 -0.32855728 -4.046048 -0.3059075 -4.9001093 -0.2572616 1.8058804 -3.4776015 0.68429554 -3.86121 3.7584112 -3.292781 -4.6008267 -4.323467 2.2236998 0.081507176 0.13958748 -1.3068268 2.5955274 -4.914737 
-6.6416135 7.927038 -5.681487 5.568751 -8.317198 -0.3539427 -5.046161 8.24933 -9.483307 5.693053 -2.1983588 4.2882485 -2.9792798 4.1170397 -5.756582 5.3104177 -2.0415251 0.6045742 -4.0026116 -0.5307605 -9.199029 -0.9278746 -5.83285 -0.73819 -8.412005 -5.1515975 -6.9470634 -1.6685232 -1.7029333 -4.1557827 -1.9191338 0.51240885 -1.4715459 -3.163519 4.67184 2.137581 1.6233103 -0.40106943 -0.0787171 2.530122 -4.224119 2.5073495 -0.46955615 3.964157 -2.0573053 2.2712908 0.9729013 2.1060882 -1.5794765 -3.3109548 -4.179613 -1.6364117 1.5051888 -1.1775614 0.661883 -0.051450685 3.9808793 -1.9162716 -2.6798193 5.3703275 5.679149 -2.4090006 5.7553616 4.6484237 4.262098 -2.8462105 5.038647 -3.8711863 -0.28619078 1.632797 2.4506507 -2.4541197 -6.3735104 3.7397902 -4.355895 -3.089074 1.8145245 3.2538238 -4.2247686 -1.9265844 0.69555235 0.5343435 -1.0796752 -3.4441288 9.689145 -1.4053085 12.52677 -8.741693 10.993649 -7.727578 
7.038158 1.2598007 6.9104877 5.525539 1.0898955 1.5393145 3.4856048 4.130295 -1.9556372 3.625964 1.3787127 0.53646284 3.4197688 -4.113646 3.3510792 -0.3401008 -5.6488395 -7.0468855 -1.2920822 -6.464521 -2.0086 -4.988333 -0.6755751 1.9076126 -5.1015186 -2.652391 -6.660855 -3.8019261 -0.09021362 -5.559947 -0.7113922 -1.0177908 -1.8436315 0.21398152 -0.09421825 5.377667 1.9788269 -0.4828372 -2.2145197 -1.5588375 -1.6970422 -1.0730499 3.1670544 2.1323466 1.0167996 2.9160147 3.721644 2.7212589 4.478307 6.750038 -2.14324 0.7150654 0.9591154 1.204935 -3.485448 4.691567 1.9798144 -4.9432096 -5.1035347 -2.6257994 5.7212005 -5.5106254 -0.57282877 -0.30904108 1.8455054 -4.612725 5.4216266 -0.7599233 3.9610522 -3.8437088 3.7295165 0.581078 2.6169236 -0.10196518 1.3505542 0.6032671 -0.13493454 5.9644523 -5.380822 1.0960406 -4.2123094 0.97890764 -1.0371901 1.1876024 -5.1367855 0.3443633 1.314922 -0.84315073 2.877414 3.546983 
2.6043847 4.055449 1.26221 -3.38346 -2.086551 -3.9142227 -0.10424039 -3.5763524 -4.9015346 3.4497855 0.32839182 -4.5186315 1.5666652 -4.185335 0.17900425 1.4540812 -3.9034138 -3.870504 -0.9495085 -2.6344101 -3.3569903 -0.7745981 1.5789632 1.3565025 3.3854475 -5.091349 -5.3120933 0.20273457 1.2629693 -4.8092318 -5.0823393 -2.356985 0.628307 -5.2973766 4.5234866 -2.5021732 -1.8098749 4.376654 1.7210505 -2.7836833 2.9003582 1.2573224 1.3175662 -0.31824812 3.122834 1.2985898 -3.0999312 -0.30909488 2.0724673 -2.1400466 -5.372824 -3.0010078 -1.8342124 -3.970672 1.7235932 -0.506169 -4.116557 1.4741033 -0.07791527 -1.4444855 0.4664144 3.3104167 -4.911434 3.616084 -3.2814763 2.2851856 -0.37284875 -5.4720387 -1.7294267 -0.86788666 3.4694514 -1.7420344 -1.3898973 3.1579127 2.7556996 1.2879244 -0.7233757 -2.2766685 2.7067666 0.25467423 3.887806 -2.2611198 2.6998117 1.1626313 -1.160898 3.7707462 -2.939885 1.6069152 2.8265986 -1.0296075 
-4.7097263 2.4310026 -1.589115 -1.441124 4.2836146 -1.6601633 3.3226562 2.1323476 -2.549011 2.825136 2.5212486 -3.4274604 2.95521 4.052806 4.8851433 -3.9591095 3.5423422 4.819543 -0.3338621 3.6832585 -4.289417 1.7817723 -1.2435443 -0.9983647 4.7774234 3.3335214 0.46339348 0.99002016 -0.2703356 1.7988186 3.5835347 0.45657587 3.826142 -0.9860612 3.4312253 0.39871272 3.0554445 4.344811 3.4001927 0.29707772 4.766969 0.71159154 -3.3799176 -1.246785 3.0555408 -2.6972177 2.3258598 -0.96382403 -4.190886 -2.6983976 0.66027147 3.7788427 0.7250014 -4.816135 -2.1891258 -1.6751434 4.053125 0.91833913 0.6141099 -2.9614437 -3.6590705 -2.2469919 -3.9370067 3.2683737 4.040981 -3.8241277 -3.4898124 1.593013 4.474039 -0.8890444 -4.212412 0.4811317 4.357919 2.4419773 4.9470487 4.5618777 -1.1309664 0.5538007 -1.1251885 -1.6729677 -0.9584491 -1.262154 -3.3528175 -2.7201133 0.19719365 3.0302129 -0.8350271 -1.7085732 3.0553393 3.3333678 
-2.9038467 0.87087107 6.11657 -2.4792237 2.4697924 -1.0048519 2.6588311 -1.1097544 1.8639247 -3.903749 
1.361141 2.85363 -1.1320201 -3.6616936 -1.4895202 -3.7729084 1.8284626 -0.6006708 0.44294262 0.39389572 
3.873782 -6.7027884 -8.020577 -1.6444418 -4.399495 2.6154335 2.614938 12.836156 -4.5491314 -4.460645 
-7.017995 -7.4279485 6.7311697 0.77251005 -2.714097 3.1383626 12.156803 2.6871438 -2.1909542 0.92584383 
